{
  "inputSize": 17,
  "hiddenSize": 32,
  "weights1": [
    [-0.067822, -0.197878, 0.134955, -0.123165, 0.005480, 0.198296, -0.147408, 0.010762, 0.189159, -0.127184, 0.138664, 0.063843, -0.184251, 0.168925, -0.110267, 0.039224, 0.177468],
    [-0.072199, 0.122418, -0.123463, -0.205748, 0.193651, 0.044454, -0.085129, 0.225907, 0.007039, 0.206812, 0.083755, -0.118502, -0.202815, -0.148205, 0.151212, 0.210195, -0.152833],
    [-0.118417, 0.137478, 0.230026, -0.239421, 0.131753, 0.011604, -0.149276, 0.061603, -0.157812, 0.012104, 0.218987, 0.132842, -0.086833, 0.086254, 0.112259, -0.205304, -0.114733],
    [0.260029, -0.240083, -0.059794, 0.483315, 0.313650, 0.246952, 0.482820, 0.280487, 0.037911, 0.246008, 0.315813, 0.392628, -0.078244, 0.154029, 0.084746, -0.026923, 0.086442],
    [0.132812, -0.138063, 0.216973, -0.158927, 0.072474, 0.009370, 0.070806, 0.137133, 0.077109, 0.013179, 0.127986, 0.097008, -0.167983, -0.196446, 0.196859, 0.052235, -0.213980],
    [-0.205605, 0.138621, -0.176411, -0.098317, -0.184845, 0.213657, 0.201589, -0.123530, 0.180953, -0.188301, -0.107921, -0.098423, -0.020665, -0.133635, -0.013374, -0.242846, 0.110690],
    [-0.340061, 0.259183, 0.083656, -0.229150, 0.145068, 0.083222, -0.109256, -0.284272, 0.085455, -0.255931, -0.151182, -0.221868, -0.037308, 0.087706, 0.088824, 0.148860, 0.130623],
    [-0.174329, 0.550613, 0.146776, -0.519535, -0.190776, -0.104915, -0.543603, -0.030421, -0.360264, 0.065642, -0.063847, -0.347427, 0.115827, 0.128318, 0.229458, 0.243010, 0.013903],
    [0.201267, -0.188562, -0.079853, 0.126598, 0.094526, 0.157971, 0.093267, -0.054532, -0.132521, -0.092535, 0.001522, -0.148263, 0.034013, -0.178076, 0.065060, -0.180635, -0.108132],
    [0.093958, 0.072898, -0.091498, 0.136741, 0.038117, -0.065418, -0.174837, -0.124050, -0.096200, 0.012188, 0.101172, -0.085056, -0.064026, 0.093023, 0.159080, -0.115304, -0.116741],
    [0.004829, 0.095323, -0.076166, -0.275506, -0.176342, 0.051617, 0.133163, -0.168478, 0.027316, 0.175267, -0.073067, -0.212598, 0.135287, -0.196143, 0.021528, 0.198606, 0.015762],
    [0.352547, 0.052471, 0.136896, 0.384887, -0.012737, 0.176518, 0.286291, 0.286355, -0.124984, 0.046791, 0.153946, -0.073308, -0.022321, 0.024233, 0.123944, 0.103832, -0.109680],
    [-0.020412, -0.219699, -0.077012, 0.201781, 0.071747, -0.012776, -0.205943, -0.191666, 0.104475, 0.232305, 0.149851, 0.219666, -0.202122, -0.029053, 0.185135, -0.215280, 0.027787],
    [-0.097373, -0.202336, 0.216402, -0.137111, -0.218899, -0.153702, 0.225221, -0.145385, -0.225817, -0.016260, -0.138766, 0.033000, 0.016994, -0.131746, -0.186149, -0.142591, -0.127190],
    [-0.631841, 0.507590, -0.142870, -0.619466, -0.274745, -0.127001, -0.486417, -0.240020, -0.260378, -0.347920, -0.291585, -0.186919, 0.014551, 0.110381, 0.262648, 0.262966, 0.308079],
    [-0.192649, 0.049975, 0.192103, 0.139822, 0.084007, -0.193656, -0.141158, 0.048827, 0.164828, -0.175571, -0.051347, -0.211303, 0.046166, -0.080705, -0.126604, -0.191099, -0.160420],
    [0.128346, 0.042681, 0.069811, 0.096382, -0.142653, 0.010895, 0.009361, -0.180870, 0.048827, 0.074912, -0.058618, -0.208272, -0.040479, 0.013759, 0.038398, 0.164593, 0.251901],
    [0.056514, -0.139319, -0.139094, -0.124914, -0.102246, -0.140491, 0.192676, 0.017042, 0.081836, -0.048082, 0.003898, 0.228517, -0.189713, 0.235196, -0.192699, -0.119095, -0.052655],
    [-0.192891, -0.119027, 0.099104, 0.158624, -0.021094, 0.209507, 0.030193, -0.090891, -0.158836, -0.172272, -0.201920, 0.155497, -0.177389, 0.149061, 0.195239, -0.051198, 0.187764],
    [-0.040675, 0.142480, 0.133162, -0.113522, 0.055790, -0.011015, 0.117440, -0.017230, 0.055531, 0.109542, 0.101872, -0.012466, 0.150770, 0.027302, 0.004098, 0.165604, 0.197343],
    [-0.238547, -0.013168, 0.237119, -0.140341, 0.063629, 0.211741, -0.053164, -0.234013, -0.187349, 0.199357, -0.207794, -0.227803, -0.007744, -0.133668, -0.035294, -0.201058, -0.161552],
    [-0.075526, -0.048159, -0.029636, -0.196210, 0.039083, 0.138563, 0.125634, -0.026558, -0.070422, -0.188491, 0.088556, -0.201665, 0.199028, -0.171390, -0.205578, 0.144362, 0.177805],
    [0.157092, -0.334824, -0.024126, 0.171365, 0.117208, 0.112768, 0.378474, -0.052123, 0.002209, 0.147642, 0.220481, 0.227795, 0.236759, -0.169333, 0.260058, -0.057642, 0.082618],
    [-0.117624, 0.010536, 0.103146, 0.091451, -0.175467, -0.168095, -0.016502, 0.036205, 0.198417, 0.073889, 0.193316, -0.127127, -0.177390, 0.232546, -0.152474, -0.176312, -0.016641],
    [-0.175212, 0.010369, 0.199971, -0.189717, 0.080719, -0.196852, 0.240083, 0.158547, 0.181406, 0.202295, 0.170592, -0.050886, -0.225477, -0.014047, -0.139153, -0.111586, -0.102255],
    [-0.039924, -0.042165, -0.078625, 0.080806, 0.119819, -0.029611, -0.404730, -0.166350, -0.122055, -0.049867, -0.113506, 0.094128, 0.203827, 0.063041, 0.171182, 0.169868, -0.186936],
    [0.176832, -0.138169, 0.010701, -0.120667, -0.033724, -0.003167, 0.006608, 0.116999, 0.045210, 0.087775, 0.155853, 0.088137, 0.005153, -0.207271, -0.090416, -0.229913, 0.031904],
    [-0.006624, -0.105914, -0.145936, -0.059830, -0.044535, 0.174529, -0.087072, 0.079255, 0.081543, -0.009679, 0.065222, 0.238802, -0.166068, -0.071815, 0.030575, -0.209950, -0.146645],
    [0.027946, 0.264078, 0.039041, -0.236506, 0.177909, 0.129369, 0.051648, -0.181494, -0.177796, 0.130222, 0.070207, -0.190868, 0.071554, -0.223210, 0.023647, 0.105215, 0.202372],
    [-0.328445, 0.371103, -0.207145, -0.596891, -0.356670, -0.039577, -0.451678, -0.214811, -0.559057, -0.463168, -0.371239, -0.151602, 0.219967, 0.241280, 0.274984, 0.234678, 0.287327],
    [-0.471136, 0.566534, 0.138141, -0.084084, -0.261137, 0.120573, -0.574467, -0.203743, -0.052412, -0.245274, -0.031171, -0.174564, 0.142010, -0.071364, 0.023466, 0.270726, 0.212146],
    [0.265660, -0.018135, 0.020561, 0.024520, -0.119141, 0.021817, 0.025613, 0.076347, -0.096965, 0.231465, -0.020375, 0.160729, -0.107926, -0.050782, 0.132170, 0.252105, -0.048622]
  ],
  "bias1": [0.005322, -0.018495, -0.026998, 0.040077, -0.021967, -0.002055, 0.068660, 0.128748, 0.000000, -0.073807, 0.028232, -0.032787, -0.019954, 0.000000, 0.167612, 0.000000, 0.045359, -0.002289, -0.001128, -0.017815, 0.000000, 0.022437, -0.000901, -0.001383, -0.000706, 0.033711, 0.000000, 0.000000, 0.011906, 0.143084, 0.165621, 0.029097],
  "weights2": [0.004254, -0.050760, -0.140919, -0.978842, 0.160386, -0.048659, 0.473451, 0.982888, 0.097337, -0.103225, 0.155387, -0.520016, 0.187686, -0.152546, 1.334047, -0.161312, 0.058156, 0.054391, 0.051454, -0.018014, 0.063689, 0.081377, -0.535792, -0.071226, 0.211057, 0.288365, 0.140204, -0.041219, 0.197439, 1.267702, 0.961205, -0.164547],
  "bias2": 0.361437
}
