{
  "inputSize": 17,
  "hiddenSize": 32,
  "weights1": [
    [-0.128936, -0.144902, -0.053376, -0.012301, -0.131609, 0.176598, 0.099691, -0.004891, 0.094606, 0.066789, 0.110386, -0.246223, -0.147808, 0.081395, 0.080013, -0.235576, 0.179168],
    [-0.130989, -0.219223, 0.070407, 0.124319, -0.007550, 0.180399, -0.061991, -0.192285, 0.151663, -0.224211, -0.104468, -0.119651, -0.180282, 0.017891, -0.067271, -0.225220, 0.193968],
    [0.070082, -0.102913, -0.219535, -0.170631, -0.475074, -0.141238, 0.105630, -0.161609, 0.204540, 0.106399, 0.206545, 0.233150, 0.136233, 0.250110, -0.038400, -0.189678, 0.210080],
    [-0.380316, -0.146731, -0.109553, -0.062778, -0.648970, 0.210988, -0.055709, 0.127114, -0.114458, -0.141448, 0.085739, 0.115456, 0.246119, -0.089019, 0.112718, -0.096345, 0.272130],
    [0.164695, 0.262607, 0.513042, 0.220560, 0.443530, -0.075393, 0.033065, 0.200565, 0.242760, -0.100450, 0.107030, 0.056788, -0.035644, 0.017131, -0.141003, 0.014127, 0.150918],
    [-0.002995, 0.146694, 0.034374, 0.011220, 0.167261, 0.018895, -0.234018, -0.025793, 0.152591, -0.076883, 0.187326, 0.006536, -0.127229, -0.179472, 0.085697, -0.211227, -0.122662],
    [0.096956, 0.177540, 0.197866, -0.025879, 0.064026, -0.229458, 0.019055, -0.077411, -0.169078, -0.054261, 0.082991, 0.134349, -0.187834, 0.065270, 0.058169, -0.168977, -0.005036],
    [0.158309, -0.179500, -0.091389, 0.077839, -0.048597, 0.090754, 0.056857, -0.053298, -0.133697, -0.045189, 0.056524, -0.225922, 0.233465, 0.024171, 0.030287, -0.101215, -0.222221],
    [-0.096120, 0.157236, 0.334648, 0.220818, -0.066238, -0.122507, 0.248230, -0.165039, 0.074288, -0.198062, 0.124315, -0.092244, -0.107774, 0.192316, -0.096970, -0.087244, 0.096110],
    [0.446232, 0.391614, 0.499865, 0.324914, 0.434799, 0.044835, -0.055476, 0.057301, -0.024007, 0.167937, -0.116108, 0.093017, 0.105749, -0.005958, 0.016759, -0.167840, -0.053388],
    [-0.096921, -0.283884, -0.279700, 0.144603, -0.265163, 0.112660, 0.141009, 0.084067, -0.037496, 0.199878, 0.027082, -0.040132, 0.248536, 0.003542, 0.041566, 0.258318, -0.148047],
    [0.206756, 0.185078, -0.053282, -0.104667, 0.096680, 0.096147, -0.049690, 0.134704, 0.005022, 0.168596, 0.245594, -0.208497, -0.229153, 0.087079, 0.121760, 0.183011, 0.218876],
    [0.064410, 0.070044, 0.287674, 0.333639, 0.614665, -0.045847, 0.054819, -0.087367, -0.021270, -0.073822, -0.075730, 0.071559, 0.145134, -0.039450, -0.146110, 0.174391, 0.071926],
    [0.213403, -0.232974, -0.217036, 0.099968, 0.078354, 0.137211, -0.197335, 0.128636, 0.082561, 0.224616, 0.106833, 0.007227, -0.233003, -0.030210, -0.098406, 0.101626, 0.017216],
    [0.018384, -0.144407, 0.119921, -0.161076, -0.166064, -0.025334, 0.229983, 0.010405, -0.236770, 0.033434, -0.051166, -0.024965, -0.199715, -0.049572, -0.071044, -0.002994, 0.124930],
    [-0.233760, 0.106047, 0.227570, 0.064762, -0.185278, -0.035262, 0.087945, -0.118398, -0.165631, -0.170818, 0.033595, -0.092267, -0.104982, -0.044162, -0.077971, -0.061713, 0.174750],
    [-0.100218, 0.202095, -0.123621, -0.057159, -0.134207, -0.077612, -0.026097, -0.125883, 0.031961, -0.151877, 0.076613, 0.067707, 0.212601, -0.051789, -0.235651, -0.232758, -0.228471],
    [0.129438, 0.251296, 0.089020, -0.214539, -0.043695, 0.054160, -0.001837, -0.095582, 0.066633, -0.129533, -0.062973, 0.155517, 0.012718, 0.179282, 0.230633, -0.178102, 0.087248],
    [-0.052173, 0.005980, -0.223934, 0.050845, 0.164919, 0.149358, -0.147390, -0.003743, 0.173466, 0.133639, 0.123891, 0.095297, -0.115622, -0.124788, -0.178845, 0.075540, 0.111172],
    [-0.212932, 0.196232, 0.126058, -0.108728, -0.152412, -0.043596, 0.218217, 0.037281, -0.190716, 0.062460, 0.171021, 0.104623, -0.201870, 0.116974, -0.075697, -0.054643, -0.133372],
    [0.041010, -0.006418, -0.126718, 0.110178, 0.171806, -0.201092, -0.131284, 0.112217, 0.082675, 0.235659, -0.003520, 0.167218, -0.017711, -0.141510, 0.094572, -0.228794, 0.037687],
    [0.130122, 0.001939, 0.516101, 0.405818, 0.503534, -0.074543, 0.177313, 0.081956, 0.001662, -0.043735, 0.215832, 0.023743, -0.065921, 0.085017, 0.140871, 0.010280, 0.019287],
    [0.322675, 0.282570, 0.403473, 0.040883, 0.085467, -0.179890, 0.096366, 0.106282, -0.021348, -0.048285, -0.147110, 0.060197, 0.200612, 0.103644, 0.053025, -0.101676, -0.232305],
    [0.126273, -0.227075, 0.071306, 0.000618, 0.014691, -0.193984, 0.044218, -0.240343, 0.062471, -0.195805, -0.109638, -0.116484, -0.043447, 0.070749, -0.121712, 0.054364, -0.044862],
    [-0.010723, -0.094250, 0.094748, 0.116042, 0.116427, 0.176136, -0.150472, 0.053361, -0.221350, 0.088730, -0.136996, -0.144779, 0.086150, 0.169277, 0.079882, 0.217211, 0.084477],
    [-0.062247, 0.001239, -0.353885, 0.139283, -0.007864, -0.134339, -0.091415, 0.114674, 0.129094, -0.093700, 0.050365, -0.149558, 0.099327, 0.217081, 0.032676, 0.249130, 0.184977],
    [0.049742, -0.166729, 0.027222, 0.225405, 0.087078, -0.224348, -0.045129, 0.134103, -0.129166, 0.035976, -0.105091, -0.042084, 0.134257, 0.198571, -0.225708, 0.024530, 0.112227],
    [0.451946, 0.187567, 0.683629, 0.371302, 0.831250, -0.169343, 0.047399, -0.134663, -0.094881, 0.072013, -0.042510, -0.092268, 0.027082, -0.083565, -0.076955, 0.083813, 0.154269],
    [-0.097693, 0.212523, 0.020306, -0.058715, -0.174867, -0.054093, -0.251448, -0.197303, -0.193527, 0.007515, -0.251984, 0.010585, -0.010538, -0.064199, 0.219628, -0.019609, 0.008811],
    [-0.196379, 0.168322, -0.191690, -0.013354, -0.018292, -0.204758, 0.083441, -0.216551, 0.038946, 0.048973, 0.141725, -0.189515, -0.106734, -0.169704, -0.033836, -0.086183, -0.087777],
    [0.126894, -0.148279, 0.201033, 0.214369, -0.049743, -0.120312, 0.083316, -0.116630, 0.009433, 0.146036, 0.207016, 0.042223, -0.200249, -0.087147, 0.088912, 0.036491, -0.185802],
    [0.180355, -0.002057, 0.143848, 0.195028, 0.245680, -0.047044, 0.213557, 0.246002, 0.136906, -0.238397, -0.055025, -0.117011, 0.137955, -0.046130, -0.026049, -0.208015, 0.012520]
  ],
  "bias1": [-0.033385, 0.000000, 0.075977, 0.062815, -0.044994, 0.000000, -0.062378, -0.003744, 0.020440, -0.005755, 0.053545, -0.016773, -0.075253, -0.005920, -0.000212, -0.022927, 0.000000, -0.007545, 0.001227, -0.003020, -0.001996, -0.098038, -0.015869, 0.000124, -0.003718, 0.028487, 0.000792, -0.048191, -0.000363, 0.000000, 0.002343, 0.027123],
  "weights2": [-0.003660, -0.001679, 0.497778, 0.739043, -0.702014, 0.229059, 0.205515, -0.014018, -0.250142, -0.876644, 0.412269, -0.112607, -0.659854, -0.110318, -0.027792, -0.065117, -0.205260, -0.055257, 0.043924, -0.096104, -0.040630, -0.808495, -0.494106, 0.140166, -0.038128, 0.260976, -0.073140, -1.177803, 0.259113, -0.160599, 0.154273, -0.049201],
  "bias2": 0.178343
}
