{
  "inputSize": 17,
  "hiddenSize": 32,
  "weights1": [
    [0.397084, 0.341543, 0.500632, 0.247840, 0.291206, 0.026656, 0.097099, 0.052351, 0.149986, -0.178647, 0.212134, 0.016386, -0.131326, 0.090525, 0.112686, 0.142516, -0.247187],
    [-0.043739, -0.024905, 0.112916, 0.091175, 0.182251, -0.223110, 0.216239, 0.015564, -0.199164, 0.011976, -0.041037, 0.074809, -0.168035, -0.222965, 0.167525, 0.056166, -0.050099],
    [-0.113817, -0.297105, -0.587591, -0.200406, -0.618492, 0.043631, -0.063979, 0.141851, -0.147827, -0.019068, -0.022170, 0.116742, -0.054779, 0.062256, 0.011032, 0.175476, 0.291424],
    [-0.094421, 0.167892, -0.191806, 0.201697, 0.108204, -0.122854, 0.033186, -0.011297, 0.033861, 0.149555, -0.122108, -0.085521, -0.217348, -0.138982, 0.005614, -0.194503, 0.177636],
    [-0.164571, -0.006693, -0.004402, -0.007164, 0.060248, -0.158500, 0.230396, 0.004270, 0.123598, -0.215027, 0.182886, 0.100611, 0.137110, -0.136445, 0.202600, -0.032356, 0.198179],
    [0.014094, 0.096941, -0.262522, -0.079498, 0.048156, -0.012686, 0.103268, -0.246875, 0.021056, -0.069573, -0.043181, -0.163095, -0.170557, 0.139050, 0.057115, 0.161930, 0.220504],
    [-0.243797, -0.017112, -0.507700, -0.035729, -0.527569, 0.192827, 0.083011, 0.200165, 0.123106, 0.266866, 0.192449, -0.141996, 0.260621, -0.077909, 0.158884, -0.016533, 0.021667],
    [0.154673, 0.108985, 0.071465, -0.130866, -0.126117, 0.016288, -0.083885, -0.241044, 0.031796, -0.098774, -0.163342, 0.030805, 0.027666, -0.056669, 0.075635, -0.002038, -0.198637],
    [0.233219, 0.372412, 0.589201, 0.104382, 0.445251, -0.205169, 0.126385, -0.008250, -0.168827, 0.192551, -0.092697, 0.086558, 0.172839, -0.044279, -0.142013, -0.104978, 0.129681],
    [0.386223, 0.250637, 0.206521, 0.216234, 0.257673, -0.085766, 0.120911, 0.101552, 0.151816, -0.144697, -0.218773, 0.140092, 0.064399, 0.175206, -0.044207, 0.087529, 0.042949],
    [-0.196569, 0.221193, 0.039597, 0.209343, 0.021455, -0.110325, 0.196580, -0.134664, 0.086450, 0.072555, -0.239038, 0.000475, -0.225005, -0.121655, 0.183786, -0.050188, -0.086042],
    [-0.214826, -0.203663, -0.226970, -0.216018, 0.105758, 0.049696, -0.128939, 0.070603, 0.040167, -0.229608, 0.156980, -0.186848, -0.094414, 0.142230, -0.171507, -0.003116, 0.015226],
    [-0.060685, 0.180154, -0.027864, 0.066914, 0.184897, 0.106369, -0.173982, -0.091774, 0.079617, -0.210348, -0.154490, -0.041149, 0.079947, -0.023277, -0.018457, -0.207343, -0.221849],
    [0.132566, 0.342288, 0.034540, 0.276217, 0.472238, -0.017924, 0.188430, 0.073440, -0.040999, -0.180732, 0.185955, 0.092106, -0.165283, 0.067755, -0.056809, -0.107359, 0.182759],
    [0.146799, 0.016995, -0.184047, -0.072032, -0.245848, -0.058594, 0.154910, 0.137466, 0.168680, 0.064008, 0.130602, 0.160394, -0.016503, -0.043673, -0.125955, 0.092547, 0.183904],
    [0.012892, -0.104972, -0.026240, -0.022246, -0.319868, -0.047769, 0.162301, 0.152149, 0.053355, -0.204172, -0.193698, 0.031178, 0.205368, 0.193005, 0.046584, 0.116236, 0.107795],
    [-0.161284, -0.215128, 0.181399, -0.045604, -0.195811, -0.099119, 0.113021, 0.213726, -0.039869, -0.009444, 0.085006, -0.061508, -0.163142, -0.160561, -0.124307, -0.056567, 0.128956],
    [0.237214, -0.133730, 0.063916, 0.103875, 0.241115, -0.114814, -0.226331, 0.020658, 0.126023, 0.105147, -0.119503, 0.225898, 0.208883, -0.219185, -0.191781, -0.090724, -0.114234],
    [0.014274, -0.213339, 0.095270, -0.146208, 0.225183, -0.134815, -0.199587, -0.151441, 0.031016, 0.000072, 0.069931, -0.101320, -0.161733, -0.120198, -0.065239, -0.145933, -0.193911],
    [-0.134013, -0.224760, 0.020013, 0.107288, 0.192831, -0.142446, -0.167301, -0.020773, -0.224526, -0.141578, -0.156070, 0.152578, -0.235366, -0.053658, 0.209605, -0.008331, -0.225784],
    [0.302515, -0.056190, -0.000083, -0.072623, 0.336058, 0.176572, 0.043792, 0.056145, -0.014611, 0.185193, -0.007228, 0.191188, 0.005223, 0.022338, -0.012408, 0.212459, -0.130655],
    [-0.116325, 0.154620, 0.229379, -0.138758, 0.126080, 0.240668, 0.081322, 0.051905, 0.112832, 0.195832, 0.078724, 0.145244, 0.126586, 0.038001, -0.213512, 0.123181, 0.082883],
    [0.455452, 0.103077, 0.490294, 0.349843, 0.702778, -0.229448, 0.222435, 0.170051, -0.192922, 0.024178, -0.099891, -0.109767, -0.187830, -0.040581, 0.132773, 0.088688, 0.114623],
    [-0.148807, -0.044089, 0.026055, -0.198282, -0.044766, -0.089330, 0.200366, 0.164602, -0.023332, -0.121882, -0.160029, -0.104889, -0.135669, 0.154629, 0.051853, 0.021395, 0.132987],
    [0.427868, 0.372499, 0.095489, 0.372319, 0.618221, 0.032875, -0.120028, 0.080921, 0.111471, 0.203353, 0.088220, -0.175401, 0.246803, -0.162742, 0.049439, 0.041951, -0.178060],
    [-0.172039, 0.212963, 0.155140, -0.262738, -0.172716, 0.128364, 0.145692, 0.073657, 0.129856, -0.147507, 0.143368, -0.150156, 0.243163, 0.025610, 0.154814, 0.166107, -0.114950],
    [-0.198236, -0.065633, 0.024263, 0.222554, 0.084238, 0.011309, 0.240927, -0.240813, -0.200971, 0.155770, -0.116715, 0.195502, -0.222624, 0.115641, -0.241929, -0.203204, -0.218892],
    [0.047185, 0.158966, -0.051368, -0.026087, 0.040918, 0.025245, 0.004365, 0.179758, 0.161943, -0.032687, 0.175692, 0.161602, -0.109149, -0.223240, 0.128328, -0.164393, -0.119429],
    [0.291374, 0.329965, 0.185648, 0.226520, 0.542589, -0.009978, -0.055668, -0.086659, 0.171095, -0.014954, 0.039269, -0.018183, -0.100386, 0.058540, -0.069641, -0.039518, 0.121584],
    [-0.176775, 0.034830, 0.232465, -0.153543, 0.238103, 0.075182, -0.084580, 0.227162, -0.226795, 0.150270, 0.210589, 0.207836, -0.090322, -0.072985, 0.023979, -0.167797, -0.123529],
    [0.093107, -0.155736, 0.216093, -0.159216, -0.158236, 0.186226, -0.033145, -0.164996, 0.101688, -0.240910, -0.178098, -0.090777, -0.138052, 0.206731, -0.177259, 0.191420, -0.177758],
    [-0.010522, -0.240494, -0.096116, -0.139693, 0.223009, -0.109050, -0.190335, -0.165595, -0.162129, 0.206991, 0.164820, -0.204104, -0.159630, -0.162649, -0.214525, 0.000217, -0.202232]
  ],
  "bias1": [-0.022018, 0.002953, 0.134448, 0.000247, -0.017122, 0.020742, 0.104322, 0.002833, -0.012995, -0.070034, -0.027526, 0.000000, 0.000186, 0.023443, 0.037096, 0.025243, 0.000000, -0.000160, 0.000000, 0.000000, 0.004571, -0.006608, 0.005946, 0.003234, 0.004692, 0.014934, 0.000000, -0.005014, -0.030342, 0.000206, -0.009939, 0.000000],
  "weights2": [-0.719492, -0.173322, 0.941398, 0.174341, -0.054895, 0.167631, 0.745715, 0.176043, -0.825658, -0.558735, 0.204823, 0.116789, -0.143149, -0.522067, 0.222875, 0.255102, -0.106779, -0.118506, 0.092997, 0.121763, -0.234535, -0.079364, -0.954615, 0.076897, -0.780377, 0.128187, 0.179297, -0.187117, -0.671902, 0.090428, -0.128887, 0.059761],
  "bias2": 0.186562
}
